{"train_loss":0.2707466807511091,"biases/layer_0":{"_type":"histogram","values":[2,0,1,1,2,0,1,0,2,0,1,1,0,2,0,5,4,6,7,3,7,8,3,4,5,2,5,6,10,6,11,15,2,9,8,7,11,8,8,8,5,12,5,9,3,3,7,1,6,2,5,3,1,1,0,4,0,4,0,1,1,0,1,1],"bins":[-1.1071240983649246,-1.074223679205362,-1.0413232600457993,-1.0084228408862366,-0.975522421726674,-0.9426220025671114,-0.9097215834075487,-0.8768211642479861,-0.8439207450884234,-0.8110203259288608,-0.7781199067692981,-0.7452194876097354,-0.7123190684501728,-0.6794186492906101,-0.6465182301310475,-0.6136178109714848,-0.5807173918119222,-0.5478169726523595,-0.5149165534927969,-0.4820161343332342,-0.44911571517367155,-0.4162152960141089,-0.38331487685454624,-0.3504144576949836,-0.31751403853542093,-0.2846136193758583,-0.2517132002162956,-0.21881278105673296,-0.1859123618971703,-0.15301194273760765,-0.120111523578045,-0.08721110441848245,-0.05431068525891969,-0.021410266099356923,0.011490153060205621,0.044390572219768165,0.07729099137933093,0.1101914105388937,0.14309182969845624,0.17599224885801878,0.20889266801758155,0.24179308717714432,0.27469350633670686,0.3075939254962694,0.34049434465583217,0.37339476381539494,0.4062951829749575,0.43919560213452,0.4720960212940828,0.5049964404536456,0.5378968596132081,0.5707972787727706,0.6036976979323334,0.6365981170918962,0.6694985362514587,0.7023989554110213,0.735299374570584,0.7681997937301468,0.8011002128897093,0.8340006320492719,0.8669010512088346,0.8998014703683974,0.9327018895279597,0.9656023086875225,0.9985027278470852]},"sample_predictions":{"count":10,"filenames":["media/images/sample_predictions_27_d7c14b0231c5d431a2dc.png","media/images/sample_predictions_27_4fd40587ba77b5e6eb17.png","media/images/sample_predictions_27_60c6ea670dd694036792.png","media/images/sample_predictions_27_4a49b47fa63059036e18.png","media/images/sample_predictions_27_acf5a28bbfd99b4a0540.png","media/images/sample_predictions_27_361f476c74279a585603.png","media/images/sample_predictions_27_595dd54620faaa127431.png","media/images/sample_predictions_27_de04c9ce5d74bd94782a.png","media/images/sample_predictions_27_f55d897afb24b738e933.png","media/images/sample_predictions_27_b6f0a251e630595d77ed.png"],"captions":["True: 5, Pred: 5","True: 4, Pred: 4","True: 4, Pred: 4","True: 2, Pred: 2","True: 7, Pred: 7","True: 3, Pred: 3","True: 3, Pred: 3","True: 7, Pred: 7","True: 6, Pred: 6","True: 5, Pred: 5"],"_type":"images/separated","width":28,"height":28,"format":"png"},"_timestamp":1.7415522666466522e+09,"val_acc":0.8663333333333333,"weights/layer_2":{"values":[1,2,2,1,4,6,12,9,18,27,36,76,86,113,194,251,344,481,668,885,1196,1537,2002,2639,3225,4027,4737,5402,5866,5644,5120,4376,3828,3046,2415,1870,1373,1095,746,613,446,290,239,197,121,81,55,46,37,15,14,4,3,5,2,0,2,1,1,2,1,0,0,1],"bins":[-1.0873578236206511,-1.0496244949872882,-1.0118911663539252,-0.9741578377205622,-0.9364245090871992,-0.8986911804538362,-0.8609578518204732,-0.8232245231871103,-0.7854911945537473,-0.7477578659203843,-0.7100245372870213,-0.6722912086536583,-0.6345578800202955,-0.5968245513869325,-0.5590912227535695,-0.5213578941202065,-0.4836245654868435,-0.44589123685348053,-0.40815790822011755,-0.37042457958675457,-0.3326912509533916,-0.2949579223200286,-0.2572245936866656,-0.21949126505330263,-0.18175793641993976,-0.14402460778657677,-0.10629127915321379,-0.06855795051985081,-0.030824621886487824,0.0069087067468751595,0.04464203538023814,0.08237536401360113,0.12010869264696411,0.1578420212803271,0.19557534991369008,0.23330867854705306,0.27104200718041604,0.30877533581377903,0.346508664447142,0.384241993080505,0.421975321713868,0.45970865034723096,0.49744197898059395,0.5351753076139569,0.5729086362473199,0.6106419648806829,0.6483752935140459,0.6861086221474089,0.7238419507807716,0.7615752794141346,0.7993086080474976,0.8370419366808606,0.8747752653142236,0.9125085939475865,0.9502419225809495,0.9879752512143125,1.0257085798476755,1.0634419084810385,1.1011752371144015,1.1389085657477644,1.1766418943811274,1.2143752230144904,1.2521085516478534,1.2898418802812164,1.3275752089145794],"_type":"histogram"},"biases/layer_4":{"bins":[-0.4136863996698221,-0.4021542586684943,-0.3906221176671665,-0.37908997666583866,-0.36755783566451083,-0.356025694663183,-0.3444935536618552,-0.33296141266052737,-0.32142927165919954,-0.3098971306578717,-0.2983649896565439,-0.2868328486552161,-0.2753007076538882,-0.2637685666525604,-0.25223642565123255,-0.24070428464990473,-0.2291721436485769,-0.2176400026472491,-0.20610786164592126,-0.19457572064459344,-0.18304357964326562,-0.17151143864193777,-0.15997929764060997,-0.14844715663928215,-0.13691501563795427,-0.12538287463662645,-0.11385073363529863,-0.1023185926339708,-0.09078645163264298,-0.07925431063131516,-0.06772216962998734,-0.056190028628659516,-0.044657887627331694,-0.03312574662600387,-0.02159360562467605,-0.010061464623348226,0.0014706763779795962,0.013002817379307419,0.02453495838063524,0.036067099381963064,0.047599240383290886,0.059131381384618764,0.07066352238594659,0.08219566338727441,0.09372780438860218,0.10525994538993,0.11679208639125782,0.12832422739258564,0.13985636839391358,0.1513885093952414,0.16292065039656922,0.17445279139789704,0.18598493239922487,0.1975170734005527,0.2090492144018805,0.22058135540320833,0.23211349640453616,0.24364563740586398,0.2551777784071918,0.2667099194085196,0.27824206040984745,0.28977420141117527,0.3013063424125031,0.3128384834138309,0.3243706244151587],"_type":"histogram","values":[1,0,0,0,0,1,0,1,0,1,0,2,0,2,3,4,7,2,3,3,5,2,2,4,6,6,4,3,4,7,4,8,12,12,13,12,15,15,15,16,8,11,8,3,2,3,3,2,2,0,3,2,3,2,1,1,1,2,2,1,0,0,0,1]},"weights/layer_0":{"bins":[-1.567333318560634,-1.5177134107487418,-1.4680935029368496,-1.4184735951249574,-1.3688536873130652,-1.319233779501173,-1.2696138716892809,-1.2199939638773887,-1.1703740560654965,-1.1207541482536043,-1.0711342404417121,-1.02151433262982,-0.9718944248179275,-0.9222745170060354,-0.8726546091941432,-0.823034701382251,-0.7734147935703588,-0.7237948857584666,-0.6741749779465744,-0.6245550701346823,-0.5749351623227901,-0.5253152545108979,-0.4756953466990057,-0.4260754388871135,-0.3764555310752211,-0.32683562326332893,-0.27721571545143675,-0.22759580763954457,-0.17797589982765238,-0.1283559920157602,-0.07873608420386802,-0.029116176391975834,0.02050373141991635,0.07012363923180853,0.11974354704370072,0.1693634548555929,0.21898336266748508,0.26860327047937727,0.31822317829126945,0.36784308610316163,0.4174629939150538,0.467082901726946,0.5167028095388382,0.5663227173507304,0.6159426251626225,0.6655625329745147,0.7151824407864069,0.7648023485982991,0.8144222564101917,0.8640421642220839,0.9136620720339761,0.9632819798458683,1.0129018876577605,1.0625217954696526,1.1121417032815448,1.161761611093437,1.2113815189053292,1.2610014267172214,1.3106213345291136,1.3602412423410057,1.409861150152898,1.45948105796479,1.5091009657766823,1.5587208735885745,1.6083407814004664],"_type":"histogram","values":[1,0,0,0,6,3,7,10,9,17,26,22,45,65,89,119,161,190,296,427,551,695,1045,1430,1955,3098,4702,7773,12745,19690,27008,30443,28071,21267,13780,8633,5287,3328,2198,1499,1077,762,594,469,308,222,147,112,85,64,54,33,23,19,12,13,6,2,4,2,2,2,0,1]},"_wandb":{"runtime":1024},"val_loss":0.43174163082262285,"weights/layer_1":{"bins":[-0.9158755303639602,-0.8851783957405363,-0.8544812611171122,-0.8237841264936883,-0.7930869918702643,-0.7623898572468404,-0.7316927226234163,-0.7009955879999924,-0.6702984533765683,-0.6396013187531444,-0.6089041841297205,-0.5782070495062965,-0.5475099148828725,-0.5168127802594485,-0.48611564563602455,-0.4554185110126006,-0.4247213763891766,-0.3940242417657527,-0.36332710714232863,-0.3326299725189047,-0.30193283789548075,-0.2712357032720567,-0.24053856864863277,-0.20984143402520883,-0.17914429940178478,-0.14844716477836084,-0.1177500301549369,-0.08705289553151296,-0.056355760908088914,-0.025658626284664976,0.005038508338758962,0.03573564296218301,0.06643277758560695,0.09712991220903089,0.12782704683245483,0.15852418145587877,0.18922131607930293,0.21991845070272686,0.2506155853261508,0.28131271994957474,0.3120098545729987,0.3427069891964226,0.3734041238198468,0.4041012584432707,0.43479839306669466,0.4654955276901186,0.49619266231354253,0.5268897969369665,0.5575869315603906,0.5882840661838146,0.6189812008072385,0.6496783354306624,0.6803754700540864,0.7110726046775103,0.7417697393009343,0.7724668739243584,0.8031640085477824,0.8338611431712063,0.8645582777946302,0.8952554124180542,0.9259525470414781,0.9566496816649023,0.9873468162883262,1.0180439509117503,1.048741085535174],"_type":"histogram","values":[2,3,6,8,11,11,16,27,24,43,79,101,131,160,215,317,380,512,710,932,1122,1326,1819,2073,2607,3263,3797,4401,4659,4903,4809,4553,4139,3547,2992,2509,2033,1678,1311,1076,815,628,470,351,266,193,146,107,65,49,34,33,24,6,12,11,9,7,2,1,0,1,0,1]},"_step":27,"learning_rate":0.001,"biases/layer_2":{"values":[1,0,0,0,2,0,1,1,6,1,3,4,6,0,4,7,8,3,5,3,4,6,6,7,8,13,5,5,9,5,4,5,4,8,6,2,6,6,6,3,1,7,6,3,6,5,4,7,8,8,5,4,1,4,4,2,2,1,0,2,1,1,0,1],"bins":[-0.3285146253981755,-0.3182279567177973,-0.30794128803741916,-0.29765461935704096,-0.28736795067666276,-0.27708128199628457,-0.26679461331590637,-0.25650794463552823,-0.24622127595515003,-0.23593460727477183,-0.22564793859439367,-0.2153612699140155,-0.2050746012336373,-0.1947879325532591,-0.18450126387288093,-0.17421459519250276,-0.16392792651212457,-0.15364125783174637,-0.1433545891513682,-0.13306792047099003,-0.12278125179061183,-0.11249458311023364,-0.10220791442985547,-0.0919212457494773,-0.0816345770690991,-0.0713479083887209,-0.06106123970834271,-0.050774571027964566,-0.04048790234758637,-0.03020123366720817,-0.01991456498683003,-0.009627896306451833,0.000658772373926364,0.010945441054304561,0.021232109734682758,0.0315187784150609,0.0418054470954391,0.052092115775817294,0.062378784456195435,0.07266545313657363,0.08295212181695183,0.09323879049733003,0.10352545917770822,0.11381212785808636,0.12409879653846456,0.13438546521884276,0.1446721338992209,0.1549588025795991,0.1652454712599773,0.1755321399403555,0.1858188086207337,0.19610547730111189,0.20639214598149008,0.21667881466186817,0.22696548334224637,0.23725215202262456,0.24753882070300276,0.25782548938338096,0.26811215806375915,0.27839882674413735,0.28868549542451544,0.29897216410489363,0.30925883278527183,0.31954550146565003,0.3298321701460283],"_type":"histogram"},"weights/layer_5":{"_type":"histogram","values":[1,0,1,0,3,5,2,4,1,6,8,7,9,6,11,18,10,11,27,25,37,31,28,37,30,51,45,67,78,164,330,448,289,156,67,59,71,57,58,41,38,41,36,13,23,16,12,12,15,14,3,7,4,5,3,7,3,2,6,0,0,0,0,1],"bins":[-0.3365844253760989,-0.3259149231588969,-0.3152454209416949,-0.30457591872449286,-0.2939064165072909,-0.2832369142900889,-0.27256741207288687,-0.26189790985568484,-0.25122840763848286,-0.24055890542128086,-0.22988940320407886,-0.21921990098687685,-0.20855039876967485,-0.19788089655247285,-0.18721139433527084,-0.17654189211806884,-0.16587238990086683,-0.15520288768366483,-0.14453338546646283,-0.13386388324926082,-0.12319438103205882,-0.11252487881485682,-0.10185537659765481,-0.09118587438045281,-0.0805163721632508,-0.06984686994604883,-0.0591773677288468,-0.048507865511644765,-0.03783836329444279,-0.027168861077240813,-0.016499358860038782,-0.00582985664283675,0.004839645574365226,0.015509147791567202,0.026178650008769233,0.036848152225971265,0.04751765444317324,0.05818715666037522,0.06885665887757725,0.07952616109477928,0.09019566331198126,0.10086516552918323,0.11153466774638526,0.1222041699635873,0.13287367218078927,0.14354317439799125,0.15421267661519328,0.1648821788323953,0.17555168104959729,0.18622118326679926,0.19689068548400124,0.20756018770120332,0.2182296899184053,0.22889919213560728,0.23956869435280936,0.25023819657001134,0.2609076987872133,0.2715772010044153,0.28224670322161727,0.29291620543881935,0.30358570765602133,0.3142552098732233,0.3249247120904254,0.33559421430762737,0.3462637165248293]},"epoch":20,"_runtime":1024.7831354,"weights/layer_4":{"values":[1,0,1,1,0,3,2,3,7,4,6,15,26,21,29,38,54,83,106,156,198,257,340,463,736,1002,1670,2776,4935,7636,10271,10946,8687,5800,3391,1995,1191,715,550,402,278,220,134,107,82,59,36,22,17,20,13,5,7,5,1,4,3,2,1,0,0,1,0,2],"bins":[-0.6583375624299288,-0.6372206872395045,-0.6161038120490803,-0.594986936858656,-0.5738700616682316,-0.5527531864778074,-0.5316363112873831,-0.5105194360969588,-0.4894025609065345,-0.4682856857161102,-0.4471688105256859,-0.42605193533526164,-0.4049350601448374,-0.38381818495441306,-0.3627013097639888,-0.34158443457356447,-0.3204675593831402,-0.29935068419271593,-0.2782338090022916,-0.25711693381186734,-0.23600005862144302,-0.21488318343101875,-0.1937663082405945,-0.17264943305017016,-0.15153255785974595,-0.13041568266932158,-0.10929880747889731,-0.08818193228847304,-0.06706505709804877,-0.04594818190762451,-0.02483130671720013,-0.003714431526775863,0.017402443663648404,0.03851931885407267,0.05963619404449694,0.08075306923492132,0.10186994442534558,0.12298681961576985,0.14410369480619412,0.16522056999661838,0.18633744518704276,0.20745432037746703,0.2285711955678913,0.24968807075831556,0.27080494594873983,0.2919218211391641,0.3130386963295885,0.33415557152001274,0.3552724467104369,0.3763893219008614,0.39750619709128565,0.4186230722817099,0.4397399474721342,0.46085682266255845,0.4819736978529827,0.503090573043407,0.5242074482338313,0.5453243234242555,0.5664411986146798,0.5875580738051043,0.6086749489955285,0.6297918241859528,0.6509086993763771,0.6720255745668013,0.6931424497572255],"_type":"histogram"},"biases/layer_5":{"bins":[-0.24008318966848569,-0.23302160794782883,-0.22596002622717198,-0.21889844450651513,-0.21183686278585828,-0.20477528106520143,-0.19771369934454455,-0.1906521176238877,-0.18359053590323085,-0.176528954182574,-0.16946737246191715,-0.16240579074126027,-0.15534420902060342,-0.14828262729994657,-0.14122104557928972,-0.13415946385863287,-0.12709788213797601,-0.12003630041731916,-0.11297471869666231,-0.10591313697600546,-0.09885155525534861,-0.09178997353469173,-0.08472839181403488,-0.07766681009337803,-0.07060522837272118,-0.06354364665206433,-0.05648206493140748,-0.049420483210750626,-0.04235890149009375,-0.0352973197694369,-0.028235738048780046,-0.021174156328123195,-0.014112574607466344,-0.007050992886809493,1.0588833847358092e-05,0.007072170554504209,0.01413375227516106,0.02119533399581791,0.028256915716474762,0.03531849743713161,0.042380079157788464,0.04944166087844537,0.05650324259910222,0.06356482431975907,0.07062640604041592,0.07768798776107277,0.08474956948172963,0.09181115120238648,0.09887273292304333,0.10593431464370018,0.11299589636435703,0.12005747808501388,0.12711905980567073,0.13418064152632758,0.14124222324698443,0.14830380496764128,0.1553653866882982,0.16242696840895504,0.1694885501296119,0.17655013185026874,0.1836117135709256,0.19067329529158245,0.1977348770122393,0.20479645873289615,0.21185804045355303],"_type":"histogram","values":[1,0,0,0,0,0,0,0,1,0,0,1,0,0,0,0,0,0,0,0,0,0,0,0,1,0,1,0,0,0,0,2,0,0,0,0,0,0,0,0,0,0,0,0,1,0,0,0,0,0,0,0,0,0,1,0,0,0,0,0,0,0,0,1]},"weights/layer_3":{"_type":"histogram","values":[1,0,0,0,0,0,0,1,1,4,1,4,1,6,6,8,15,21,28,63,68,123,174,274,408,589,910,1416,2184,3384,4831,6829,8396,8966,8005,6080,4296,2920,1865,1231,827,523,366,259,144,90,63,40,37,23,15,13,4,8,2,4,1,4,1,1,0,1,0,1],"bins":[-1.1296418426286055,-1.0957396031384725,-1.0618373636483394,-1.0279351241582064,-0.9940328846680733,-0.9601306451779403,-0.9262284056878073,-0.8923261661976742,-0.8584239267075412,-0.8245216872174082,-0.7906194477272751,-0.7567172082371421,-0.7228149687470091,-0.688912729256876,-0.655010489766743,-0.62110825027661,-0.5872060107864769,-0.5533037712963439,-0.5194015318062108,-0.4854992923160778,-0.45159705282594476,-0.4176948133358118,-0.3837925738456788,-0.34989033435554573,-0.3159880948654127,-0.28208585537527964,-0.2481836158851466,-0.21428137639501355,-0.1803791369048806,-0.14647689741474756,-0.11257465792461452,-0.07867241843448136,-0.04477017894434843,-0.010867939454215492,0.023034300035917665,0.0569365395260506,0.09083877901618376,0.12474101850631669,0.15864325799644985,0.19254549748658278,0.22644773697671594,0.2603499764668489,0.2942522159569818,0.32815445544711497,0.3620566949372479,0.39595893442738106,0.429861173917514,0.46376341340764715,0.4976656528977801,0.531567892387913,0.5654701318780462,0.5993723713681791,0.6332746108583123,0.6671768503484452,0.7010790898385784,0.7349813293287113,0.7688835688188442,0.8027858083089774,0.8366880477991103,0.8705902872892435,0.9044925267793764,0.9383947662695094,0.9722970057596427,1.0061992452497757,1.0401014847399086]},"biases/layer_3":{"_type":"histogram","values":[3,0,1,0,0,1,5,6,2,4,3,3,2,1,5,3,3,9,3,7,3,3,6,5,3,7,9,4,6,4,8,7,7,4,9,7,4,4,7,7,2,4,4,9,2,6,5,4,4,4,3,3,5,5,2,2,6,3,1,2,1,2,1,1],"bins":[-0.3150394414334351,-0.30452244138067885,-0.2940054413279226,-0.28348844127516637,-0.2729714412224102,-0.26245444116965394,-0.2519374411168977,-0.24142044106414146,-0.23090344101138524,-0.22038644095862903,-0.20986944090587278,-0.19935244085311654,-0.1888354408003603,-0.17831844074760408,-0.16780144069484784,-0.15728444064209163,-0.14676744058933539,-0.13625044053657914,-0.12573344048382293,-0.11521644043106669,-0.10469944037831047,-0.09418244032555423,-0.08366544027279799,-0.07314844022004177,-0.0626314401672855,-0.052114440114529315,-0.04159744006177307,-0.03108044000901683,-0.020563439956260587,-0.010046439903504345,0.00047056014925184186,0.010987560202008084,0.021504560254764327,0.03202156030752057,0.04253856036027681,0.053055560413033,0.06357256046578924,0.07408956051854548,0.08460656057130173,0.09512356062405797,0.10564056067681415,0.1161575607295704,0.12667456078232664,0.13719156083508288,0.14770856088783912,0.15822556094059537,0.16874256099335155,0.1792595610461078,0.1897765610988641,0.20029356115162023,0.21081056120437647,0.2213275612571327,0.23184456130988895,0.2423615613626452,0.25287856141540144,0.2633955614681577,0.2739125615209139,0.28442956157367016,0.2949465616264264,0.30546356167918254,0.3159805617319388,0.326497561784695,0.33701456183745127,0.3475315618902075,0.3580485619429637]},"confusion_matrix_table":{"sha256":"144d3efd27d135a8e54a0c668ce04425736aac23b4144d972e54c6de59f6970f","size":3021,"artifact_path":"wandb-client-artifact://jsx339nmtcqj88k8zfvke7yzactgtxm715ttopfjc6vfivf6q4bhfb2c6lwpq4c8mb8qsszxkalqwxkbgf15qdg7v4q7kuv0oi4m134pf8ugwl642hre8kijevvqs7g2/confusion_matrix_table.table.json","_latest_artifact_path":"wandb-client-artifact://fkmdy6mk6pnsenufru0mvcjnzlznkwini4zfm0gtqxwr43pozt2t01ogt74mc4zt7qa9he12gtcb05zz7cfsiuy2tb18n1bdjjjle9oacfc3jqj6x2s0uy72jsvzt3jj:latest/confusion_matrix_table.table.json","path":"media/table/confusion_matrix_table_26_144d3efd27d135a8e54a.table.json","ncols":3,"nrows":100,"_type":"table-file"},"train_acc":0.900537037037037,"biases/layer_1":{"values":[1,0,0,3,2,2,2,0,2,2,4,3,3,4,6,5,5,4,10,6,9,6,10,5,2,3,6,2,3,9,5,7,5,5,1,2,11,6,7,7,12,9,3,7,10,8,7,4,3,2,1,3,3,4,0,0,2,1,1,0,0,0,0,1],"bins":[-0.4072580280970484,-0.39425820112100995,-0.3812583741449715,-0.3682585471689331,-0.3552587201928946,-0.34225889321685615,-0.3292590662408177,-0.3162592392647793,-0.3032594122887408,-0.29025958531270235,-0.2772597583366639,-0.2642599313606254,-0.251260104384587,-0.23826027740854855,-0.22526045043251008,-0.21226062345647165,-0.19926079648043318,-0.18626096950439472,-0.17326114252835628,-0.16026131555231782,-0.14726148857627935,-0.13426166160024094,-0.12126183462420248,-0.10826200764816402,-0.09526218067212555,-0.08226235369608709,-0.06926252672004868,-0.056262699744010214,-0.04326287276797175,-0.030263045791933285,-0.017263218815894876,-0.004263391839856412,0.008736435136182052,0.021736262112220517,0.03473608908825898,0.04773591606429739,0.060735743040335854,0.07373557001637432,0.08673539699241278,0.09973522396845119,0.11273505094448971,0.12573487792052812,0.13873470489656653,0.15173453187260505,0.16473435884864346,0.17773418582468198,0.1907340128007204,0.2037338397767588,0.21673366675279732,0.22973349372883572,0.24273332070487424,0.25573314768091265,0.26873297465695106,0.2817328016329896,0.294732628609028,0.3077324555850664,0.3207322825611049,0.33373210953714333,0.34673193651318185,0.35973176348922026,0.37273159046525867,0.3857314174412972,0.3987312444173356,0.4117310713933741,0.4247308983694125],"_type":"histogram"}}